digraph Tree {
node [shape=box, style="filled, rounded", color="black", fontname=helvetica] ;
edge [fontname=helvetica] ;
0 [label="BaO <= 3.06\nentropy = 0.88\nsamples = 41\nvalue = [42, 18]\nclass = lead barium", fillcolor="#f0b78e"] ;
1 [label="Al2O3 <= 3.79\nentropy = 0.59\nsamples = 14\nvalue = [3, 18]\nclass = high potassium", fillcolor="#5aade9"] ;
0 -> 1 [labeldistance=2.5, labelangle=45, headlabel="True"] ;
2 [label="SiO2 <= 50.4\nentropy = 0.95\nsamples = 6\nvalue = [3, 5]\nclass = high potassium", fillcolor="#b0d8f5"] ;
1 -> 2 ;
3 [label="entropy = 0.0\nsamples = 2\nvalue = [3, 0]\nclass = lead barium", fillcolor="#e58139"] ;
2 -> 3 ;
4 [label="entropy = 0.0\nsamples = 4\nvalue = [0, 5]\nclass = high potassium", fillcolor="#399de5"] ;
2 -> 4 ;
5 [label="entropy = 0.0\nsamples = 8\nvalue = [0, 13]\nclass = high potassium", fillcolor="#399de5"] ;
1 -> 5 ;
6 [label="entropy = 0.0\nsamples = 27\nvalue = [39, 0]\nclass = lead barium", fillcolor="#e58139"] ;
0 -> 6 [labeldistance=2.5, labelangle=-45, headlabel="False"] ;
}