digraph Tree {
node [shape=box, style="filled, rounded", color="black", fontname=helvetica] ;
edge [fontname=helvetica] ;
0 [label="SiO2 <= 83.93\nentropy = 0.75\nsamples = 35\nvalue = [47, 13]\nclass = lead barium", fillcolor="#eca470"] ;
1 [label="K2O <= 5.52\nentropy = 0.4\nsamples = 30\nvalue = [47, 4]\nclass = lead barium", fillcolor="#e78c4a"] ;
0 -> 1 [labeldistance=2.5, labelangle=45, headlabel="True"] ;
2 [label="entropy = 0.0\nsamples = 27\nvalue = [47, 0]\nclass = lead barium", fillcolor="#e58139"] ;
1 -> 2 ;
3 [label="entropy = 0.0\nsamples = 3\nvalue = [0, 4]\nclass = high potassium", fillcolor="#399de5"] ;
1 -> 3 ;
4 [label="entropy = 0.0\nsamples = 5\nvalue = [0, 9]\nclass = high potassium", fillcolor="#399de5"] ;
0 -> 4 [labeldistance=2.5, labelangle=-45, headlabel="False"] ;
}