digraph Tree {
node [shape=box, style="filled, rounded", color="black", fontname=helvetica] ;
edge [fontname=helvetica] ;
0 [label="CaO <= 6.29\nentropy = 0.78\nsamples = 39\nvalue = [46, 14]\nclass = lead barium", fillcolor="#eda775"] ;
1 [label="K2O <= 0.44\nentropy = 0.71\nsamples = 36\nvalue = [46, 11]\nclass = lead barium", fillcolor="#eb9f68"] ;
0 -> 1 [labeldistance=2.5, labelangle=45, headlabel="True"] ;
2 [label="PbO <= 7.3\nentropy = 0.34\nsamples = 28\nvalue = [44, 3]\nclass = lead barium", fillcolor="#e78a46"] ;
1 -> 2 ;
3 [label="entropy = 0.0\nsamples = 3\nvalue = [0, 3]\nclass = high potassium", fillcolor="#399de5"] ;
2 -> 3 ;
4 [label="entropy = 0.0\nsamples = 25\nvalue = [44, 0]\nclass = lead barium", fillcolor="#e58139"] ;
2 -> 4 ;
5 [label="CaO <= 3.25\nentropy = 0.72\nsamples = 8\nvalue = [2, 8]\nclass = high potassium", fillcolor="#6ab6ec"] ;
1 -> 5 ;
6 [label="entropy = 0.0\nsamples = 7\nvalue = [0, 8]\nclass = high potassium", fillcolor="#399de5"] ;
5 -> 6 ;
7 [label="entropy = 0.0\nsamples = 1\nvalue = [2, 0]\nclass = lead barium", fillcolor="#e58139"] ;
5 -> 7 ;
8 [label="entropy = 0.0\nsamples = 3\nvalue = [0, 3]\nclass = high potassium", fillcolor="#399de5"] ;
0 -> 8 [labeldistance=2.5, labelangle=-45, headlabel="False"] ;
}